-1.606171803426905687e+00
1.716393440771297740e+00
1.152197458725959134e+00
-5.280849770172564739e+00
2.895651456444034100e+00
-9.173998517828982902e-01
-7.576526197014209207e-02
-8.296053005434086414e-01
-1.034542781094832886e+00
3.735698934011258965e-01
5.147588058756809026e-01
-5.960840246486029947e-01
-2.015531908065590017e+00
-1.169253385849999383e+00
-2.589743987763968747e+00
-6.489852897443377344e+00
-1.533408475911980595e+00
-3.628239319655836237e+00
-3.452886639136646618e+00
1.636858605404071687e+00
-3.250798725146139656e+00
-2.162701348741222329e+00
2.535364017093871158e+00
-1.062056522544691378e-01
3.362534830841099609e-01
-1.794597864475292459e+00
-7.296042138708341618e+00
3.559312540587746265e-01
-4.552777386566046580e+00
-6.450564866431311994e-01
3.523069752229616713e-01
-1.120034384831468444e+00
-1.171942317613899442e+00
-3.138448757648533149e+00
-1.541839809875125811e+00
1.042846006628214139e+00
-2.560790507266800464e+00
1.884222790382084511e+00
-2.827973459438827053e+00
-1.169764677750485982e+00
-1.192102890748972382e-01
-1.306832122339763202e+00
1.781527829844359534e+00
-3.043503377827763146e-01
4.262640054257217648e-02
2.709404576817356358e-01
-2.984934951003400005e+00
-6.701028444592082023e-01
-1.758222260146693028e+00
-1.025647984456198980e+00
1.771224861029284225e+00
7.305241881117298108e-01
-2.237755647646398671e+00
6.892506939465849136e+00
5.962016921625156840e+00
-1.457031785869676410e+00
-5.081353051350611105e-01
1.471009249301808319e+00
-1.010940610864073275e+00
-1.017567365348912345e+00
1.967212971613824468e+00
-3.258140423742548641e+00
-4.070856324612255328e-01
-4.219454698055733921e+00
6.694287369842450985e+00
-1.558966813396630791e+00
1.296992358745043816e+00
-1.619161358950181206e+00
-7.396362763778054905e-01
-2.864293588029029003e+00
-6.581010339423427169e+00
6.194657765824343798e+00
2.696535416757670500e+00
-3.553583694038517371e-01
3.154399223562034393e+00
-1.007348069672162261e+01
-1.022895877643805962e+00
1.567454397887169781e+00
7.424926081976614967e-01
1.872505596073139045e-01
-3.162379261943814246e+00
2.793948931067462560e+00
-1.986348637798011907e-01
-4.028886126638579590e+00
-3.135422083932541959e+00
1.359328148932028961e-04
-1.165719570584110354e+00
8.829267714601760630e-01
-2.314761948710157835e+00
2.430350980158210994e-01
-1.063578104551287540e+00
-1.114679543413162000e+00
1.230971642703981850e+00
-4.473289594403120212e-02
-4.847139145061146182e-01
-1.000815060098122489e+00
-1.326005424910676078e+00
2.140048795462664799e+00
-5.131644238010756531e+00
2.180802117346121449e-01
3.339355661915466289e+00
8.658122964744176642e+00
1.004842423904510174e+00
-8.142753822950243858e-01
-1.427089291161728779e+00
9.213847199276047339e-01
1.711382605379571942e+01
6.386486319704052228e-01
-1.232239922432597279e+00
6.529628994861530700e+00
-1.157155871441397865e+00
-1.916990733621354026e-01
-1.370939634265502960e+01
3.263223131881711203e-01
7.416332933599316668e+00
9.498876759803632774e-01
-1.069904553074422227e+00
-3.284651376622778951e+00
-7.667402286167424030e-01
1.252351114116330599e+00
-4.055322710031386002e-01
-3.345270191482465627e+00
-9.874278310742897746e-01
-1.573472505207137662e+00
5.850130351199108736e-01
9.089971310271014460e+00
-6.197586113809981923e-01
-2.613465003257982658e-02
3.160593407829052737e+00
-1.126580150960554416e+00
-1.508208883057199579e+00
-5.669536491260267486e-01
1.554530837907432517e+00
-3.084725198603072371e+00
-6.117412546070505108e+00
1.144135658614387596e+00
8.200695864650556999e+00
1.732496297309440214e+00
-5.928202798537049567e+00
1.099192086993486139e+00
-2.107309205188679702e+00
-8.174315348449420204e-01
1.108083545722876595e+00
8.902515984114552083e-02
-1.189037473415317736e+00
-5.841204731061737654e-01
2.070492873812886270e+00
-2.069771153495398863e+00
-5.942754553848919041e-01
7.485532803850072359e-01
-2.103830820145837777e-01
-2.724174889098529007e-01
-6.218826922225515474e-01
-5.021248971354477231e-01
3.436244067249113687e+00
1.359352646253310581e+01
-2.243278768567317505e-01
1.055770907822924620e+01
2.559080914370428061e+00
1.836948621094094958e-02
-2.960886941269110784e-01
-6.597748243775304333e-01
2.983181982644297392e+01
4.657127833772963577e+00
1.924238791836266005e+00
-6.106748971562837164e-02
-3.343950865552353657e-01
-5.363661704003782837e+00
1.841815697345370761e+00
7.372964538712412086e-01
-3.814078507538202434e+00
-2.083197907357585255e+00
6.906783570938687111e-01
-9.560364937994280110e-01
1.704065238730932963e-01
1.261756323927229584e+00
3.510714436457725296e-01
1.634751671176790433e+00
-2.335109722633776475e+00
-1.348478796129010338e+00
-3.711195032388362236e+00
-7.189293203485486172e-01
-4.573264163328523146e+00
1.344523034795547245e+00
-1.279716827112872046e+00
-1.476380347386518466e+00
-9.738392575448852062e-01
-7.528355008110082736e+00
2.903243107447919247e-01
2.938807310277907203e-01
5.847895484009217881e-01
-9.366021264317576644e-01
-9.607275807339329399e-01
-1.586414895026894589e+00
-7.991123760425266065e-01
-3.533367699180003929e-01
9.874070761067489599e+00
-3.812401636253286430e+00
1.644526254201124971e+00
-7.189799880330373094e-01
-2.261542810426915295e+00
3.557935637076580893e+00
-2.946921740879735463e-01
-1.603168742502237010e-01
-2.577098216266205721e+00
-6.527454156332307411e-02
3.717506194225665972e+00
1.667319052724209605e-01
-1.296678049287833145e+00
-2.928194983087533565e+00
-5.029217877193786768e-01
-4.309965760718608152e-01
1.596383638984783637e+00
-1.279482844337818115e+00
7.435811462662240245e+00
2.630371796515394323e+00
-3.745949899812370809e+00
8.577227682174832779e-01
9.635443855607200847e-01
-3.059050374554377782e+00
3.187104591006253984e-01
-2.002919101708739547e+00
1.477163935545434237e+00
-4.923475664262115248e-01
-1.153009353434517825e+00
-1.438067364403383941e+01
1.559892020693828130e+01
-1.085154383942526168e+00
7.146559597202494452e+00
-5.050514547686268951e-01
2.397172922913936244e+00
-4.449109022483829889e+00
2.010211357717548708e+01
-2.275578023694352581e+00
-1.145962950330568608e+00
1.175406289919852476e+01
-6.826260047522760832e-01
-1.058942810110981014e+00
4.411708198314061025e-01
-1.416017273939058185e+00
1.927713782817259414e-01
-1.007541106556298693e+00
-5.480545728194430311e-01
-1.096504070547810450e+01
-1.296034929618117948e+00
-9.960460023847779454e-02
-6.047819766066019065e-02
1.993007320602743659e+00
-1.902387006945094328e+00
8.745839740562655340e-01
-4.955833856084858269e+00
-1.031913472382352426e+00
-6.226451068663427790e-01
-4.490913291238547433e-01
-9.721052949436552737e-01
-1.134141787526478540e+00
-1.196943275716731980e+00
-9.096012807078402318e+00
3.846668490636737797e-02
-8.898966842230798813e-01
4.484701931434807776e+00
1.870645624989502931e+00
-5.463221589270777362e-02
3.801668231115407082e+00
-1.807225029100711700e+00
-7.721392258894340443e+00
2.598138711317523608e-01
-9.035437683403406695e-01
-1.210149223318741640e+00
-1.854484799953103058e-01
-1.492476201733227592e+00
2.684999355691486844e+00
-3.587656559268329048e-02
-3.325437374134186386e-01
2.076079160547482871e+00
-9.845565127975824948e-01
2.708281201585851949e+00
4.833573926313068370e+00
-1.804200564267507634e+00
1.505026928447664503e+00
-7.124495275963095564e-02
-7.504986082940698910e-01
-2.976212409754955268e-01
1.401204726933986677e+00
-1.467660320531802176e+00
-1.085307223312254710e+00
-8.167681043096789439e-01
-1.851900173354494195e+00
-4.360458009780214250e-01
-1.499162693592447915e-01
2.257351270443061164e+00
3.023152107890543672e+00
-1.893230529359202441e+00
-2.555491593522658977e+00
1.038388327028635372e+00
-1.218524209391842472e+00
2.495448212936943300e+00
1.170858480519756939e-01
-1.377815060237354450e+00
4.080644569205564842e-01
