-8.471940604726924118e-01,-1.218679053884140773e+00,-2.341087144765592765e+00,-2.662496198685211368e+00,-3.547806425931944840e+00,-1.034395826381949046e+00,-1.920929991835073070e+00,-1.416224867305634127e+00,-6.710447712776783646e-01,-2.522010121501890190e+00,-1.427095451700941098e+00,-1.773832331201826928e+00,-2.334290943238133964e-01,-9.514829252820665717e-01,-3.697285776072690711e-01,-3.099332488242967809e+00,-8.850540865738897311e-01,1.012639242000335171e+00,-8.297337019672728839e-03,-5.660203231432248128e-01,-5.343681335413198036e-02,-3.855082562914308841e+00,-3.324879490328571219e+00,-4.672717276647641582e-01,-2.173232952197116319e+00,-1.247107105125796478e+00,-3.542774462630017052e+00,-2.296369824227654011e+00,-1.540969476238111868e+00,-2.152193808888278159e+00,-2.401890599723412567e+00,-8.294019234657435957e-01,-6.460110928098378169e-01,-1.539011122181330071e+00,-1.758097717691656126e+00,-2.636517355567773890e+00,-7.195913073509132563e-01,-2.780603485363341676e+00,-3.757304875053316007e+00,-1.282038412490739576e+00,-1.621099468170144720e+00,-1.068590116237041254e+00,-2.573452329556654039e+00,-1.862609567425760781e+00,-2.072167850560967306e+00,-2.233871159203777879e+00,1.405988808327182760e+00,-1.878043595149056610e+00,-9.959508588646269756e-01,-1.110253862730983698e+00,-2.294214254515357432e+00,-2.139096719186644791e+00,2.543161950563374685e+00,1.023453800975111516e+00,-3.301892495722318799e+00,-9.936383164795221656e-01,-2.224092233365800197e+00,-2.900592375386727539e+00,-1.826941406746249719e+00,-2.297743822578905526e+00,-2.067885233493266528e-01,-2.847859816365113428e+00,-1.723325383193944349e+00,-3.377918645084998062e+00,-5.741012331761313980e+00,-1.892408385570800933e+00,-1.855615688505125149e+00,-4.666324245537913362e-01,-2.596434725331373539e+00,-4.003228706080705357e-01,-3.265047449272333591e+00,-5.485704954020685697e+00,-3.481293077565872807e+00,-2.076453519477579945e+00,3.265502957385608140e-01,5.549801567654892409e+00,-9.251399500055627056e-01,-2.074205951351374644e+00,3.889229718119337487e-01,-2.282767184311770503e+00,-1.785534380647484598e+00,1.086178484118896614e+00,-1.147321132362804752e+00,4.051631951692192146e+00,-4.925990586534119586e+00,-2.312556518894157698e+00,-2.776018710500423037e+00,-2.070789063785852147e+00,-1.427781521577504709e+00,-2.140695572054657436e+00,-1.298723422637994229e+00,-2.094110377428687109e+00,-3.142444426123082835e+00,-1.886803167671185388e+00,-1.543740180297786591e+00,-1.258572983623093444e+00,-7.007472649365028561e-01,-3.131203472731258319e+00,-6.027022344548904620e-01,-2.526001799617008547e+00,-1.368884889824300899e+00,2.119517205832603057e+00,-2.960864149672523649e+00,-1.671574072128615196e+00,-7.481526603482695492e-01,-2.048717414770267808e+00,-6.019853390190892384e+00,2.144738079770258932e-01,-7.654929275924938770e-01,-3.751919422213627175e+00,-8.313190206144507322e-01,-1.893881050988670101e+00,6.714085867385842121e+00,-1.908087475035240344e+00,1.957721962705617491e+00,-2.738225630054482718e+00,-1.573455384126803080e+00,3.977697312066166724e+00,-1.190625190548451728e+00,-2.026809988166389243e+00,-2.048878165731574885e+00,-1.931054545302933745e+00,-9.714379809127440257e-01,-9.618732111936258988e-01,-1.782641962261033663e+00,-5.932220506621933565e-01,-9.323233006782586374e-01,-2.151052720957028264e+00,-4.775904918488153683e+00,-1.538682982635589891e+00,-1.281923359389573358e+00,-1.665197465980701619e+00,-2.750732132760355331e+00,9.493317766890086995e-01,-3.148309720895321906e+00,-2.656809486329688053e+00,-5.697921630385022418e+00,-3.131902320866100986e+00,-1.337287787174491260e+00,-6.945730191255189423e-01,-3.627394715455656837e-01,-1.018442456744678815e+00,-2.684284823739240267e+00,-2.169769566489835100e+00,-4.555751695618227570e-01,-1.496029535463867521e+00,-3.144663010090474664e+00,-1.372576099186442189e+00,-1.211833253744974526e+00,-9.104877096254866409e-01,-1.710200819892825574e+00,-1.915114804863240483e+00,-1.416040300526176132e+00,3.287476385348348656e-02,-3.778347923879649795e+00,-9.261929712316494090e+00,-2.051825239531138045e+00,-7.133412900079413532e+00,-3.011560874611485250e+00,-2.180418268774411139e+00,-1.900046361022357910e+00,-1.429362040914832210e+00,9.791355284322262875e+00,1.015535089292499971e-01,-2.790270148538516626e+00,-2.362045694290055398e+00,-1.679608117000706002e+00,-2.481209357628511913e+00,-2.526729126052193131e+00,4.296572323673769622e-01,-3.150914960126760533e+00,-3.078839898901538086e-01,-1.699312321228108713e+00,-1.250315238025474951e+00,-2.340000500623274693e+00,9.788053267059386442e-02,-2.494500150223986523e+00,-2.547071138800854229e+00,-2.471481225393200865e-01,-8.260927221129799047e-01,-1.156521701508874234e+00,-1.962110132572236987e+00,5.055995950276359618e-01,-1.998316467159176657e+00,-7.188127957029255555e-01,-6.905989958631290060e-01,-9.758155629276469289e-01,4.137645530728916832e+00,-1.629747516067163504e+00,-2.310067080353161995e+00,-6.672624965107771811e-01,-1.097841940990188503e+00,-2.054645257427657246e+00,-3.129610933947382989e+00,-1.138183410776537396e+00,-1.939049994694451273e+00,-5.463461826091635665e+00,-3.029835272171840899e+00,-2.717531996905462766e+00,-1.415629005646389382e+00,-3.702270947211467877e+00,-6.185510567410099192e+00,-2.751659627082677861e+00,-1.892637047106434656e+00,-1.804536406074453425e-01,-2.102919160368407869e+00,-4.375482862820058827e+00,-2.306594307729910476e+00,-9.767239582880059556e-01,-3.853742295517382233e-01,-1.917732008242856390e+00,-1.918950544772475952e+00,-2.935119484936566714e+00,-2.622949857524511597e+00,-3.724627774522831114e+00,-2.184179754904270077e+00,-2.194143573328044550e+00,-2.390624816740591907e+00,-2.519607238743427402e+00,5.866318074732541632e-01,-2.639245953870358541e+00,-1.284789050230447538e+00,-1.962916280406972414e+00,-1.602832515188876705e+00,-3.146178416575711595e-02,-2.103039443608461845e+00,-4.833348914892975579e+00,-9.595113800278133320e-01,3.008202567552285878e+00,-1.545865806357545225e+00,-2.209026599126405532e+00,-3.507433393795894805e+00,-4.942318818402875458e+00,-1.700323706848177352e+00,-9.990789353141255047e-01,-1.478018232596399750e+00,1.338383657965310780e+00,-9.858357626246404548e-01,-2.513159933188264361e+00,-1.085246370044773645e+00,-2.186648332631080383e+00,-8.973917999659719591e-01,-1.586113371094978852e+00,-6.247130374160669852e-01,-6.403179526478121053e-01,-2.083658420005054523e+00,-2.316152733052611268e+00,-1.810625550561517860e+00,-3.713360140588216618e-01,-2.182174032677288711e+00,1.821957194753342169e+00,-9.079340143936490692e-01,-1.616319940577602754e+00,-1.690541050545453228e+00,-9.252377245762675173e-01,-8.348398170732669321e-01,-1.008603215043608170e+00,-4.043861002023350082e+00,-1.854629472811786917e+00,-1.453029639969799947e+00,-5.249253371321419337e+00,-2.069454539954989514e+00,-2.705679299103068036e+00,-3.220473723055165660e+00,-9.821767394285602082e-01,-1.077020678444420954e+00,-1.808502663740645167e+00,-2.003647935627122845e+00,-1.097008419254743794e+00,-1.938495876457239753e+00,-1.553780860345864712e+00,1.920905657953876577e+00,-2.245827949803626211e+00,-1.584269179167606456e+00,-2.217859383908825421e+00,-1.166663065601024618e+00,-3.045531377344687929e+00,-4.195957857831784210e+00,-1.350250212571660002e+00,-2.022534257187488915e+00,-1.349241682184429747e+00,-1.360818634392572335e+00,-1.929133417132050443e+00,-2.006888122631349525e+00,-5.998645127914693509e-01,-1.292258669211235000e+00,-2.081211042631442076e+00,-4.766415377658028141e-01,-1.728851044369143386e+00,-2.081084727152791025e+00,-3.097776813216471581e+00,-3.879065571082409125e+00,-4.046216776660502279e-01,-4.519785227787208370e+00,-1.595217785081249229e+00,1.649954210911389829e+00,-2.434958573598425824e-01,-2.431966119572749552e+00,-1.719294646185340447e+00,-2.730191971101213255e+00
1.114571781469762879e+00,-2.401713697293829775e+00,1.737126784061137297e+00,5.274128620443028659e+00,1.426497264198046455e+00,1.141436357881613795e+00,6.196377594531022881e-01,1.440383675021177368e+00,2.485765271244343211e+00,3.373492780479521724e-01,-5.534291324492739417e-01,1.303363288264526521e+00,1.879967087053046937e+00,2.133944141825330654e+00,2.602617492826164280e+00,-4.774469286111763466e+00,2.477026096643008657e+00,2.360746557581193894e+00,2.701515411746895357e+00,-1.963520050492970181e+00,2.598999822771191681e+00,1.332228149824407626e-01,1.415126744253667024e+00,1.021369854397347413e-02,2.024617329298746826e-01,2.129068859578709727e+00,5.881010969381745390e+00,5.575653787490326696e-01,6.327668471639745107e+00,3.786959942498150933e-01,2.205177925503734315e-01,2.057815577114334715e+00,1.493249626657536133e+00,4.684569145333442819e+00,1.009496553917131445e+00,1.068759007290939866e+00,3.094694539534471822e+00,1.726946251026006740e+00,2.859251281923696486e-01,5.901243657193457892e-01,1.956083782084642397e+00,7.969963868646653404e-01,2.246164525752541774e+00,-4.304815511263047623e-01,5.380475856499304932e-01,1.476918401173184847e+00,1.538299928692728802e+00,1.228594559453056290e+00,2.488239403055528598e+00,1.776708371430457678e+00,6.205678752320033242e-02,1.382886025909558114e+00,-2.181195116588776628e+00,5.311875329746461816e+00,-5.498771401526958869e+00,2.273290805320959507e+00,-9.651867004868536215e-01,1.608152301638118065e+00,-3.462993990446661674e-01,-9.639640656313326339e-01,-1.270722069046863245e+00,-3.560474928414303797e+00,6.460195109276913872e-01,-4.075866868213331884e+00,-7.792055653752085753e+00,-2.768055738130025034e+00,-1.562755990942680917e+00,1.756915925485089236e+00,-1.685647200340275154e+00,2.769916933720104169e+00,5.376782167281919378e+00,-7.392394381577195972e+00,-4.704987820612704930e+00,1.162618153494091366e+00,-3.110603639405665977e+00,-1.166016847987314442e+01,1.259720192771558223e+00,-9.919355015389556829e-02,6.730041936706896433e-01,4.432061044866945076e-01,3.868611228517902789e-02,2.777649526457257600e+00,3.417560813967140954e-01,-1.520723831935645753e+00,-3.389992731741547249e+00,5.699341569837766963e-01,-1.804783030466708293e+00,5.689584044491225075e-03,1.445732423145600354e+00,4.613967978858199426e-01,6.035736808684724064e-01,-6.393537168216737454e-01,-4.433858455363955120e-02,1.805998442551145056e+00,2.925341810586520874e-01,1.815993326096730254e+00,1.668748124294008539e+00,1.303361115684837479e+00,8.138346737928236152e+00,5.007618772488685588e-01,-1.454910249534262512e+00,5.599591529187604166e+00,-1.143085116180426845e-02,1.599843992471186027e+00,2.415723664356136169e+00,1.866962083063306688e+00,-5.151247371531382235e+00,1.380090379645002585e+00,1.576258306101172790e+00,-5.958470437520487550e+00,1.856780916206782761e+00,6.067029972764841350e-01,-1.384621454747938962e+01,1.575341758337009512e+00,5.072638903938980981e+00,4.506861264027899883e-01,1.691913134806834584e+00,-1.026367216249967296e+00,8.887117282035678079e-01,-2.317375990202609759e-01,7.890203439249442452e-01,-2.836197450219652971e-01,1.196666091885033811e+00,1.964045564375237918e+00,8.569724159450671230e-01,1.082380967119561888e+01,-6.913695552190294302e-01,5.017704711717986266e-01,4.636183276079718363e-01,1.776121949804957856e+00,2.119137579735965282e+00,2.224187291263969302e-01,1.325437583301677602e+00,2.189501566131649479e+00,5.063187510484189247e+00,-1.875392160935130503e+00,-6.307793351310901464e+00,1.629151259365516191e+00,-1.062610539958612987e+00,-9.925813243567649380e-01,1.893505403961338596e+00,1.591309381418293700e+00,4.661760272684138950e-01,1.226289585928812764e+00,1.738417567294791022e+00,6.915799622116391987e-01,1.175622039362172577e+00,2.081307949125897672e+00,1.431989826757715578e+00,-3.189565194864665831e-01,1.935827971964200644e+00,1.690822925505326646e+00,1.413685613465401447e+00,-1.251797272182672227e+00,2.981228755720309653e+00,-1.337406596659007540e+01,3.007041209966516693e-01,-5.702135826070420244e+00,-2.123063817497078953e-01,6.398590180802326000e-01,8.978853064770638825e-01,1.560016136708611389e+00,3.654462889718665508e+01,-4.396792131329569919e+00,2.056546925092925360e+00,-3.967200239530402905e-01,8.251784001787295653e-01,-4.552777048489272116e-01,4.624681910870036272e-02,1.058020887487896911e+00,-3.856474777401832643e+00,1.935521358847027473e+00,-1.362711413850190345e+00,1.793818349098677434e+00,4.647529332396250212e-01,-5.198458284190808909e-01,2.275460623155650952e-01,2.110350161152349191e+00,2.077794707432618182e+00,2.319200590780073234e+00,6.050718294911418660e+00,1.375364581639572314e+00,3.403993274307710148e+00,8.433611558097876826e-02,1.608916012760372993e+00,1.468319206296542889e+00,2.308262117304708649e+00,-8.289147581102335849e+00,1.270986034689924216e+00,1.328302458796827734e+00,-3.257230202607032110e-01,2.392225732388317372e+00,1.303030533241587685e+00,-1.945116025811189031e+00,1.413243636363880285e+00,1.634760583129137856e+00,9.943463021584998174e+00,-3.783119043854584529e+00,2.145160219469413487e+00,7.692828182232558376e-01,-5.320912163638098491e-01,-6.901459301559474957e-01,2.715365428833189099e-01,6.919828070495642747e-01,3.622355037839390501e+00,2.309179807343366697e+00,8.948267453258015314e-01,7.582906937918757473e-01,2.220504309205987070e+00,2.450119434723516676e+00,1.745351778057761205e+00,1.193479116795687300e+00,-2.452801137800888209e-01,-1.127687476721350723e+00,4.343880891387946974e+00,-3.315385173921220896e-01,-5.952673759231662531e-01,6.104546355403547148e-02,9.231424146255152730e-01,2.159829219882094087e+00,1.746626904445670592e-01,-2.705730482590216202e+00,-1.532311898993360677e-01,6.466536976453215457e-01,-3.774536191079365111e+00,2.055980587398397930e+01,-6.423046055203858629e+00,2.240153112116878731e+00,-7.051434551776313953e+00,5.771541661224031117e-01,3.615842481956164645e-01,-4.208858612589547299e+00,1.947791169058850613e+01,3.341570678281153395e+00,2.193394983323541325e+00,1.471169557633402647e+01,-1.496112145935393656e+00,1.107154145228363529e+00,8.293296072478201220e-01,2.082944899437587871e+00,4.057965730725016096e-01,1.232452149700808075e+00,2.019276694866832145e+00,-8.889547605705683253e+00,1.487041062101986943e+00,6.904876951209669711e-01,3.957490480174234992e-01,3.644557406164675495e+00,1.818811273190575895e+00,2.514115103599590673e-01,5.041056763327840251e+00,1.269136282935275917e+00,1.078296003146718141e+00,1.132356326827395732e+00,1.249167399271796874e+00,1.596402316637889118e+00,1.056786420862485754e+00,1.016215582734356637e+01,8.756558977312900449e-01,1.652578883214691707e+00,-1.973197736265472346e-01,-7.142230851474651310e-02,-4.019490342310233499e-02,1.042986070547125554e-01,2.306936913231628861e+00,-5.770263234661704210e+00,1.812571302833859699e+00,1.187397624725804235e+00,2.077191370393849823e+00,7.695768401936480263e-01,1.716825662134878083e+00,-1.695824244567418315e+00,7.329379987198169077e-01,1.179101858567142669e+00,-2.142310829753638901e-01,1.909371196175615903e+00,3.453489352646784916e+00,-4.333226267110523722e+00,2.044599972702305646e+00,-2.043338112378254579e-01,2.330568740683804485e+00,1.516302730655681996e+00,1.216548043509883215e+00,-3.149229042457631356e-01,1.766136137672157824e+00,1.682613585356595998e+00,-6.394639018957305465e-01,2.790312224853107814e+00,1.191293409466518183e+00,3.240055211654431777e-01,-4.324566105357742218e-01,-5.468526186408241285e-01,1.780163054989818638e+00,-1.199043393735885338e-01,-1.208667168900520394e+00,-2.342360220242667879e+00,-2.030990064765848757e+00,3.435898422617321701e-01,-2.339653689305734474e+00,6.312990631383686990e-01
-9.403905903775834352e-01,-1.277844731222169239e+00,-1.370693202176803405e-01,6.744038832790675286e+00,-1.340403803729302637e-02,-1.800788074013723428e+00,-1.222890856714552221e+00,-8.070203811900950042e-01,-3.000322139466178317e-01,-1.044983291682396231e+00,7.869154559085217437e-01,1.396604498826721497e-01,-2.165673882500276370e+00,-1.687859307946549536e-01,-6.230951676652449756e-01,4.411944606942285185e-01,-2.725311996512349566e-01,-2.259427509987304017e+00,-1.165569782419031863e+00,-1.162573461793924068e+00,-1.161610850040981635e+00,1.186869581425816111e+00,-2.549046317605490816e-02,-1.078433321641052878e+00,5.757705250176722300e-01,6.726453083020663554e-03,7.137272106040644992e+00,-1.329280577236607863e+00,4.992166813328344332e+00,-6.994592286234840861e-01,-1.253412277947809406e+00,-1.049451334716899442e+00,-2.051632631264051376e+00,4.370297902822706249e+00,-1.053553269972324208e-01,-9.932970066583278468e-02,1.059718302655447086e+00,-1.783426681548578030e-01,9.071884183481925268e-01,-7.502014618431176451e-01,-1.260460246390713857e-01,-8.066598103962355770e-01,-6.437127837711338618e-02,-8.400988332272725234e-01,-1.270498846601341159e+00,-4.436746809776218603e-01,-3.484869961306566566e+00,-1.595241430882142764e-01,-1.782102619120259912e-01,-8.493232966369905768e-01,2.279603518165264742e+00,-6.265517169170031764e-02,3.203984209441396169e-01,2.123481677233615805e+00,-4.483765446565302071e+00,6.702969570543664268e-01,-1.340670153640272311e+00,-2.152206572154778730e+00,-2.245251059725589027e+00,-1.757906716608155895e+00,1.073335005366663264e+00,-1.201693008850906130e+00,-1.418069988397210324e+00,-1.358657796124940642e+00,-3.676731025694980115e+00,-5.577384999594998671e-01,-3.395849173202282856e+00,-1.176876647254921249e+00,-9.993365845121162661e-01,-2.219776204653435836e-01,6.569840560357138592e+00,-3.547576094941927050e+00,-3.430389541686234556e-01,-2.743721108842843148e-01,-3.988879790433753625e-01,-2.428863943027236849e-01,-1.409263041952528273e+00,1.867887146712678748e+00,9.867962582809145511e-01,-7.862768577051307828e-01,-4.173568832770452097e+00,7.633084923723818527e-01,-1.564393923172505474e+00,8.636554261222081363e-01,-1.076298021142165912e-01,-4.610561065070348241e-01,-1.153978931107999983e+00,1.453117131125734929e+00,1.889447531861047913e-01,-8.151751382052737638e-01,-7.676704729233393421e-01,-2.231940463904106053e+00,-1.690251539590864160e+00,-4.593009842737026949e-01,-8.079632501854842053e-01,-6.616337936605585224e-01,-1.013486366547948103e+00,-1.138881006226371839e-01,4.217726435224666837e+00,1.085353770575057941e-01,3.448539834485685240e+00,4.616372698489661364e-01,-1.842030724115639728e+00,-1.804848481526819537e-01,-5.125118556702883410e-01,9.913016117742376801e-03,-2.955579195071512455e+00,6.096497538621831191e-01,-1.090575833549388474e+00,-4.796961117913699724e+00,-1.854100278267453161e-01,-1.261591412494253994e+00,-3.727105269081874006e-01,-4.163334591976023541e-02,3.905331109736024375e-01,8.360110269017487217e-02,-2.186981799917737113e-01,-1.169513207753878486e-01,-2.054717088240891609e+00,1.613678643856373274e+00,-5.067287881008234462e-01,-3.991195816996502721e+00,-1.718614389773805762e+00,-8.848301563952262194e-01,5.735681899261995120e-01,-6.685529289171113554e+00,1.898376082703611689e-01,-2.286303179287268728e-01,-1.756686458049206090e+00,-2.731925016988248078e-01,-3.961259424115182171e-02,-1.260579029440364707e+00,-2.283109486802345489e-01,-2.393678870629916577e+00,6.225453989523322740e+00,-3.071927187953237492e+00,-7.566690768811753287e+00,-1.871101639622280155e+00,-5.565680533488526649e+00,9.349812616312225266e-01,-1.114678673880031390e+00,5.232653300082845682e-01,3.945497899802157815e-01,-6.153836897080071644e-01,-1.968564619673500271e+00,-1.631564928132536174e+00,-3.234036576873407509e-01,-8.954466321289025754e-02,-1.250307260038287183e+00,6.569293989393046873e-01,-7.345999596936432230e-01,-6.950593973689668742e-04,-8.938577624854187054e-01,4.394107662907280165e+00,-3.057093100853697898e+00,-6.614488252286993664e+00,-9.399077999741238809e-01,1.935962100167379907e+00,1.792349348807043885e+00,-8.098792067341522571e-01,-1.551993478082097644e-01,-6.972994635417505416e-01,6.848639042700729540e+00,-6.522299451001613235e+00,7.915996442658204679e-02,-9.030488208323135257e-01,-7.849395261526254108e-01,-4.963588400089421704e+00,2.551490491468862309e+00,8.455279056942772709e-01,-1.278691607289092369e+00,-1.139049440064750840e+00,-1.736117151945150983e-01,-6.076585283855631126e-01,-8.282530729371431200e-01,9.783490217898547225e-01,-9.235197580279506102e-01,-6.282987491979144350e-03,-1.137353684630175055e+00,8.133356327391473573e-02,4.103580109868921078e+00,-5.378582714967978379e-02,-1.786579583622668110e+00,1.895502414701567773e+00,-1.038871143821322729e+00,-1.046154667063986521e+00,-6.133545576122679810e-01,-1.163057418121193454e+00,3.118594730766788836e-01,-5.017010710949594277e-01,-7.721299869739737254e-01,-6.876037112583616162e-02,1.284528454186425334e-02,-1.363643228151345976e+00,-9.627482132994510389e-01,-1.671274382633639866e-01,1.328824393284947725e+00,-1.281829383105182352e+00,-1.951763839724739436e+00,-1.781384154233882633e+00,1.616755100360359299e+00,-1.724171104727662662e+00,-4.938631322312572736e-02,-6.240443575059634318e-01,9.906252849093589719e-01,3.683698952786956804e-01,-8.245920500969736722e-01,-2.137642463387553204e-01,-4.132542010703978974e-01,1.203225005751226373e+00,-1.923653672215429669e-02,-5.045603147894097557e-02,1.253372860512357079e+00,-2.010798859060668242e+00,1.750170792105732120e+00,3.598450647666151969e+00,-4.211660841233310748e+00,8.634192414389972869e-01,-7.527687585501476042e-02,7.462431876869955738e-02,-9.582366837585909458e-01,-5.905487349228365490e-01,1.667353221776604277e+00,-1.661419045616012280e+00,3.654511417210739577e-01,5.520371073056006495e+00,1.025864081745786116e+01,-1.801664405038751193e-01,-7.722147619146796593e+00,-1.185543787787097569e+00,2.278428896473256415e+00,-1.403270859554570871e+00,6.640637408826481014e+00,3.677370412073362349e+00,-5.936753402549685976e-01,1.363853710415340315e+00,1.358704519262338706e-01,8.692532987269244171e-02,-6.787851382946548107e-01,-3.571258493200420436e-01,-8.877402451701588149e-01,-2.043945254336879902e+00,-1.470939769410903319e-01,1.414250870987373609e+01,-1.957208120626034997e+00,-1.039723107810785141e+00,-3.948747793100761960e-01,1.642802641395888219e-01,-1.114749997936293147e+00,1.830675527635642341e+00,-5.079754213289001896e+00,-1.858899403439918885e+00,-3.809351653269338889e-01,-7.761960140826389409e-01,-1.624324073379248556e+00,-9.555349052901711548e-01,-7.977826521636776080e-01,5.191405168817131432e+00,5.782960906749372576e-01,-6.663376934768215909e-01,7.043087545371353730e-01,2.029714408451031904e+00,-3.359223607569979814e-02,4.372208032084150986e+00,2.744187213869099806e-01,-2.410841320190395987e+00,-7.360333784814125924e-01,-4.783370659186576834e-02,-6.073642166750341520e-01,-1.221071822863202927e+00,-1.134388741789285476e-01,-4.831954400156084795e+00,-2.138609638009137115e-01,5.589319625577517936e-01,1.861673838804269066e+00,-6.949134768173754750e-01,-2.807140645134810431e+00,-5.209966302320740539e+00,5.837010867401998433e-03,1.745662659866226818e+00,-1.598184089920632045e-01,-1.803393932670781519e-01,-4.003259468439890334e-01,1.612599656535586901e+00,-1.044888428965626836e+00,-7.733019430286743878e-01,-2.154464799440860112e+00,1.219830815135679591e-01,-1.054489494774794700e+00,-9.089232382031068314e-01,1.622899526936307346e+00,1.631736226955845526e+00,-1.131353350103190047e+00,1.345247926136639460e+00,1.007325141595737827e+00,-2.002674034292974414e-01,1.098196692746435055e+00,-5.770303941457182173e-01,-1.037527237571224115e+00,-2.539090758399074055e-01
-1.641372038222206564e+00,2.602761891892967583e+00,1.900730402879495129e+00,2.040729064842574658e+00,3.253320096922104554e+00,4.669224346693187644e-02,-1.130152038938142312e+00,-7.185010707367842642e-01,-2.159418074568887569e+00,-5.331572491875627984e-01,1.641773639351352232e+00,-8.337294492479205843e-01,7.599900801060622824e-01,-1.653449029095787504e+00,-3.368115217835405684e+00,-3.315147934487878256e+00,-4.367150415134240515e-01,-3.388521637965069999e+00,-7.533057147827243449e-01,2.288507080770044944e+00,-7.212770712742997414e-01,-1.033642761487269857e+00,3.046940509214903336e+00,7.362658553234746606e-01,2.836196602721208215e-01,-4.585532049591037329e-01,2.116417152235588350e+00,-5.765243893110501006e-01,1.661359760937760388e+00,-1.578645387245739995e+00,-5.175970987639446630e-01,-4.670013953589030598e-01,5.844092452831826240e-02,1.199967984535105670e+00,-2.070585360633651728e+00,1.953366469496415014e+00,-9.420314543242068739e-01,2.517345767416672597e+00,-9.635366961680023046e-01,-1.872797480202079701e+00,-9.193774665239925481e-01,-1.827088932871457239e+00,2.392557515500950860e+00,-1.289706581134961283e+00,-6.590869241585722849e-01,2.395090228202462201e-01,5.457888429967197474e+00,-9.757267855202880202e-01,-3.148104765219825740e-01,-1.777808124455461936e-01,-1.633878878111723498e+00,1.296982481601509640e+00,-2.811627772066813691e+00,3.120535718007444448e+00,-6.310660779979582635e+00,-1.532412590027100618e+00,1.280528608238419519e+00,8.904030554770676620e-01,1.986296537731182088e+00,1.763826826593991814e+00,2.705007128801661498e+00,-2.592332292800730631e+00,1.766669948700679005e-01,-3.023558737000159979e+00,1.632085173052203464e+00,-1.842480389989014089e+00,-3.293919772285860414e-01,-5.098374391968656383e-01,8.106163889755407803e-01,-3.587759080907672704e+00,1.965134418253236648e+00,1.570307555406281752e+00,1.332244895383330130e+00,-5.424723000941181761e-01,3.246993722425867146e-01,5.296115366318749018e+00,-2.382370487555088290e-01,-1.229095547565683511e+00,2.070245411558305548e+00,-6.872031268522996728e-01,4.753775284454540895e+00,2.741587748192648721e+00,-2.877793111046377250e-01,-4.004742286272224838e+00,1.367615300029806580e+00,1.250735983016450781e-01,1.027252813187102820e+00,-6.946473851645602604e-01,-2.241699789407295640e+00,-4.963594598709934469e-01,-1.814354666737800770e+00,2.273870942795851224e+00,-5.970378655719367211e-01,5.845010851009859731e-01,-1.130412008782397226e+00,-8.211503253139110781e-01,-5.324588492193638167e-01,2.806265381909015755e+00,2.535532990107520313e+00,2.497725800233044358e-01,-5.423151566032954563e+00,3.110414635415469142e+00,-6.425062969076691388e-01,-7.586503258100403269e-01,-9.096778309531228235e-01,1.806163496552594339e+00,-2.193946827409794409e+00,1.881960080554996750e+00,-4.621576421479720032e-01,-6.503685906595279675e+00,-2.066579643987278558e+00,2.033035458088643110e-01,6.646484286367599914e+00,1.105081921537870437e+00,2.957653828902609749e+00,1.749601091386570495e+00,-7.919634093813024966e-01,-3.662160679689578480e+00,6.459618498372327045e-01,-9.591802637302613288e-01,-1.386892227463829785e+00,4.820656478360394459e+00,-4.414975256363509737e-02,-7.343343947296473440e-01,1.212531868798510493e+00,6.849633246599642789e+00,-3.180307731829758566e+00,-7.555313006674586607e-01,2.445483859794973736e+00,-7.565023766637504199e-01,-4.153108263450389082e-01,-1.554732513783378511e+00,2.264776481773667527e+00,-3.408559456132405963e+00,1.889963894835519298e+00,-1.068650737547667123e-01,-2.400630989103275326e+00,1.470046817186688282e+00,5.927612436159034992e+00,2.330234388077059737e+00,-5.574562383468297799e-01,1.539356186967413553e-01,1.775264089851722682e+00,1.530188763071889668e-01,-8.803391923158619681e-02,4.521992026737451931e-01,2.648343141298509895e+00,-5.609983534202725997e-01,6.629000966195226774e-02,4.366993878142136909e-01,4.839842984020459316e-01,-3.366720040809380310e-02,-2.264741230868002331e-01,-3.197633539250221091e+00,2.231997281038758718e+00,-1.684763942568402673e+00,7.231420118407574371e-01,4.608406369235722444e-01,-6.658283176124869529e-01,-1.086703400269203534e+00,-1.496673254790204188e+00,-4.712691758070289838e-01,-1.820764507421457878e+01,-1.921794240760954731e+00,2.558681409619056879e+00,-1.131618268071813871e+00,-1.189377657137823813e-01,6.424382956766988784e+00,-1.946915546909380623e+00,1.931497795252163696e+00,-2.821583754071343986e+00,-5.460852547400099066e-01,1.062409934324554106e+00,-7.714756116262694308e-01,-6.933240690879131085e-01,2.519123363535064275e+00,-5.327512290275726592e-01,2.325285044660844846e+00,-5.806131249321137000e-01,-1.209342672482039305e+00,1.493801467600152977e+00,-6.663334061571110079e-01,-3.151264545287093988e+00,-1.272397163684340970e+00,-5.029418714932388790e-01,-6.550942592131490105e-01,-3.457566867395818200e-01,-4.310181586075048088e-01,8.615438120423098978e-01,6.950740417997109954e-01,2.335249343856869331e+00,-1.621533190877140207e+00,-7.849724701472032828e-01,1.399408684137623649e+00,-3.072277475165515748e-01,1.157874772499750127e-01,5.551798414854024477e-01,-2.850683129160431761e+00,1.455433087655916280e+00,3.870853951044535002e-01,-2.549754069872460338e+00,2.742653580141474645e+00,-3.602683458183994492e-01,-7.375145655372582487e-01,-1.559072174453878024e+00,-1.417879677590139220e+00,3.493279503609022285e+00,-1.160500741953235521e-01,-7.666301219378293119e-01,-2.563831656109379242e+00,7.308835517603988474e-02,-7.869010669763959465e-01,2.444242004780083632e-01,2.194866857317102404e+00,-4.323888839850966725e+00,-4.199147418214278282e+00,5.191849154668761734e+00,6.388617539738316031e-01,1.619911245443329095e+00,-3.913744927659394524e+00,-4.554597162933265442e-01,-2.478580013516614944e+00,-1.042841522246309438e+00,4.428600689281501079e-01,-2.988543080305319677e+00,5.889085816380823957e+00,7.167694645143138921e+00,-2.246191115770311608e+00,-1.843264923711586567e+00,9.148577580310299218e-02,-1.590899489839768588e+00,-3.145954378471905066e+00,-8.053102257099636674e+00,1.129959112360067852e+00,-9.205839289277220061e-01,-7.137133781594211079e+00,-1.993748048541324813e+00,-2.210306906178926223e+00,1.060895839434128574e+00,-6.926903677390267022e-01,-4.238440751838888354e-01,1.812005226092982257e-01,-1.048348788455866876e+00,-8.752252237674959190e+00,-1.327104109059319692e-01,-2.942543693097284321e-02,-1.259534430389244397e+00,1.263314252681855709e+00,-5.242007852372365662e-01,-1.180137535449392594e+00,-1.612826532774453425e-01,1.591068006315067215e-02,-1.778309717563896220e+00,-5.034700766261497318e-01,-1.256075943901322767e-01,-5.597419537524599420e-01,-1.919203274533788139e+00,7.732612867251683397e+00,-7.311621395844997151e-01,-3.584563278783484686e-01,3.521810851503917039e+00,-1.416952606966120687e+00,-5.698008380879078238e-01,-4.812423864356148329e+00,-7.696806871214473267e-01,-3.232734048520664594e+00,9.785938836467796831e-01,-7.883388635029797697e-01,-8.286999350850189350e-01,-7.385289635149040743e-02,-6.476270745732438661e-01,-1.811566000818243927e+00,-8.744544638359342814e-01,-1.632325477955352433e+00,-1.236690340395802057e+00,-3.673180531436924801e-01,2.308869191523953646e+00,2.064356421460944724e-01,-4.993999240811654583e-01,-1.112414234227296683e+00,-1.856649875611301459e+00,-1.676370583244515267e+00,-6.707626076611926669e-01,-9.832015188643753456e-01,-5.443644239505681659e-01,-7.721295197410509292e-01,1.788296990304128364e+00,-1.228626175845445756e+00,-2.384269331726568686e-01,5.377417932816217633e-02,-4.288384691924306824e-01,5.323178489596704088e-02,-5.077552151907606115e-01,-1.189748283312580313e+00,-4.799130784296523067e-01,-7.989880231884016748e-01,2.422626111222784928e+00,-5.268180832215824116e-01,-2.112662360096321912e+00,9.739837848520824792e-01
-3.032463791584493418e+00,-8.187036103491183159e-01,1.863031889059885704e-01,2.337274209066949826e+00,1.269371226943923014e+00,-1.385523295507329111e+00,-5.201041712609121709e-02,-9.387490767906849776e-01,-5.416774705483864416e-01,4.392950364330921315e-02,5.962535675978405392e-01,3.723922333488687841e-01,2.333347247974854710e+00,-6.167686843249115848e-03,-5.783947736977550491e-01,-5.080679724866289604e+00,4.826464268865848783e-01,5.730738698730304392e+00,-4.796025001816875744e+00,-1.152402345732147948e+00,-4.612641519134393242e+00,1.127689341316144844e+00,9.981407146207158521e-01,-3.089215854496977776e-01,-8.410146728333453003e-01,1.345243675834710606e+00,-1.906278068102291723e+00,-4.245229196293835439e-01,1.488690267489084507e+00,1.083794977021651507e+00,-8.359165023558972063e-01,-8.689649863783842632e-01,-1.000702987983410619e+00,-7.053014138545987688e-01,1.304700418501820502e+00,5.649920995860665540e-01,2.294069549973588362e+00,2.153184941887824333e-01,2.023182182159731557e+00,-2.191335102945605851e+00,-1.530340204275146609e+00,-2.337376296067972259e+00,6.012831351745234754e-01,-1.221698515938309137e+00,1.700590103486772642e-01,-9.553271839431544121e-01,-2.150695958239962291e+00,6.047377726798446318e-01,8.823802707969978787e-01,5.155564722470682426e-01,5.781901352061780824e-02,-5.036357605319347064e-01,1.109735834643137187e+00,6.435830258845853358e+00,4.355101475705917657e+00,8.006950401898546010e-01,-9.437322759243162995e-01,-5.739766360604939832e-01,-1.274512422218762930e+00,-1.149789951938313459e+00,2.790510130408677458e+00,-1.250719862835212082e+00,-4.043465166694962254e-01,-1.569308342896251540e+00,-3.151183394674632154e+00,-1.781883886743144574e+00,-8.587586930567328580e-02,-2.372589446537545665e+00,-7.284758588506342614e-01,2.563453915103355296e-01,-2.143134424634893787e+00,-3.030392041936224690e+00,1.356621343007208713e+00,-4.929189730147029436e-02,-3.392212980477235185e+00,-9.541298114810767839e-01,-1.710265037614071559e+00,-4.646225863244378695e-01,1.421527963969959396e+00,-7.372433619349578748e-01,-1.815270870290154548e+00,3.165697649294441085e+00,-4.302266116996460443e-01,3.251874624521575718e+00,5.344980189224565192e-01,7.129603128124552269e-02,-9.274890477385678844e-01,-2.426476291468317170e-01,2.536654313647274339e+00,-1.778309153470543746e+00,-2.002897203055340469e+00,-8.064304861108667621e-01,-6.997619944569001271e-01,-3.603643718799640627e-01,-1.341718055467771231e+00,-5.122353271619898285e-01,-1.869397884179383240e+00,4.835902858367409629e-01,6.436031525734989822e-01,1.464363261591102548e-02,4.284412642332380283e-01,8.384675073228994080e+00,-5.321728786037003278e-01,1.448691550333521816e-01,-4.853671303535586068e-01,7.896007485171840923e-01,-1.915222772064402079e+01,1.051227992874951722e+00,-1.764974194110235262e+00,4.358051240160978779e+00,-5.429422652085801326e-01,-1.053605888237667543e+00,-1.312911390002273082e+00,4.604582274644486994e-01,6.792776098919498295e+00,-3.482483374502508000e-01,2.655784306397431793e-01,-2.639371022460878513e-01,-1.267474635602421795e+00,-6.271865431969378957e-01,-5.655381030991516456e-01,-1.460246262858608146e+00,-1.484437266665567856e+00,-1.191367512390481220e+00,4.640359262505896476e-01,-5.720576168527740091e-01,-1.182971680819057347e+00,-4.926557892563547258e-01,-1.574734489945379901e+00,6.758223318659033474e-01,1.214608279785153844e+00,-6.823670231183954771e-01,-9.060515973364215159e-02,4.825959774313703932e+00,-2.106487234078451287e+00,-1.464927563158684998e-01,-2.909887721602251620e+00,-1.706272665098765295e-01,-5.650097856793324880e+00,1.405777096974024643e+00,-3.329561456947157438e+00,-2.388194638297148842e+00,-4.037417941575950353e-01,-5.466564044495794139e-01,-1.397367825277829212e+00,-9.402920862553115766e-01,-4.073457515668162943e-01,1.250484533171080104e+00,-5.707214326838759844e-01,-2.960682733013805912e+00,-1.097149100027416391e-01,-6.338613677442702654e-01,5.217511826298046025e-04,-4.528192465142550915e-01,4.602865020015386999e-01,-8.181683438756341686e-02,-9.073548105468132174e-01,-1.110229074407324390e+01,-2.268520048042170334e+00,-7.170262467824110031e-01,-2.741187571181439298e-01,-1.027523693452334852e+00,1.224506759545402224e+00,1.621828992744576370e+00,1.360361268057291184e+00,-1.153466277138023965e+00,-1.271603217221270121e+00,-1.675680849660826865e+00,6.678735880516473156e-01,1.112949771135542276e+00,-1.477268909747887715e+00,-3.235922449223256336e+00,-1.335122757453231168e+00,-9.055327296518147495e-01,-6.827198163887611138e-01,1.645750455850499616e+00,-6.949175482737233178e-01,8.948345112957525327e-01,-3.570912577573237101e+00,1.313758988309502440e-01,-7.141877851793773657e-02,2.853630705909174781e-01,-5.386105401427585093e+00,-8.244164239373543701e-01,-1.952445617571598957e+00,-2.699818080734506243e+00,-6.259648146319225503e-01,4.829561353379296484e+00,-4.819064809405833316e-02,-4.494596242594687263e-01,1.001615915588126793e+00,-6.901244492968901245e-02,7.434580648543954728e-01,-9.335193040830152000e-01,-1.230994361715261887e+00,1.206796667758071456e-01,-5.984651044954063970e+00,-1.804599126229712969e+00,-9.166293411764470100e-01,-1.518773455668631200e+00,-2.777194827492253104e-01,-2.158166735612219167e+00,3.556493209792765398e-01,2.397422114909149582e-01,8.024488624653910440e-01,-2.214786808481395142e-01,-3.195187903861157253e+00,-9.965898864827223980e-01,-2.900928413942132078e-01,2.996299742562853030e+00,6.344786580836454526e-01,-7.884793606578863745e-01,-2.187700967000086649e+00,-6.445382278469984350e-01,-6.399061584752891996e+00,3.395029135718303781e-01,-1.473765055458500228e+00,-1.810604107341336144e+00,-3.115668773442888950e-01,-4.641474712469097597e+00,1.130532403277650783e-01,-2.757028260857768753e+00,-1.192828737964679586e+00,9.186305810083386647e-02,1.259620052428227277e+00,-2.339780024013949633e-01,-1.898393472996546905e+01,3.906660753249177609e-02,2.878442670600418918e+00,-1.417157834532439820e+00,-1.959148805047268294e+00,-1.769924853253502794e+00,-5.373027227476908640e-01,-7.285169252180527799e-01,-2.525452043191298568e-01,-4.015644494673086484e+00,8.346668935624097507e-01,-1.726481578593255239e+00,-2.709293574513009784e-01,5.322446207132090074e-02,-1.370424429180834069e+00,-1.135345357006305234e+00,-7.692309955275070665e-01,-1.887414302537471222e+00,-1.816341831371139248e+00,-7.046003452987856241e-02,2.242018648937458836e-01,-2.767032429458677001e+00,-2.926554372055569786e+00,3.282597106111000418e-01,-3.601322587789691276e+00,-1.266616921710877808e+00,3.632451309018218111e-01,-7.686465150274219837e-01,-1.629528252629889984e+00,-1.783405380372907523e+00,-1.755459715922917274e+00,-1.016222754116079541e+00,-4.967300064422513484e-01,6.662081914441141395e-01,-3.350016557331184863e+00,-8.539033304530532220e-01,-2.628444864718498114e-02,2.358747555572616506e+00,1.120927240869144637e+00,-7.112590846562597768e+00,-9.118106302966829668e-01,7.614889008356056088e-01,-5.018870138728220853e-01,-1.918855270859587958e-01,1.082721219058573103e+00,-2.219160939209099404e+00,-1.123075704439386646e+00,-5.354133883276490646e-01,-1.683783938408226044e+00,9.375878927799319307e-02,-1.929736943250270620e-01,-2.368593549341862836e+00,1.417102320411780081e+00,-5.580767517446922898e-01,-1.216267932241117400e+00,1.074573656419073597e-01,-6.927679670619409924e-01,-9.073807089598722175e-01,-1.935484249984375626e+00,-1.109598781011641000e+00,-8.079172302514034953e-01,6.067051123277553831e-02,3.176338893720579981e-01,-8.226397155083258195e-01,-2.364304895807182838e+00,-3.110093313584165298e+00,-2.919304150706411249e+00,1.169703118399131547e+00,-7.911409579817469950e-01,2.270607376063129124e+00,3.543438146208684802e+00,1.105475750942715440e-01,-2.013011759040234661e-01,1.766594999099756202e-01
